// Auto generated by utensor-cli

#include <stdint.h>

const float inline_dense_1_kernel_0 [ 660 ] = {  0.023074752,  0.007672146,  0.21371916,  -0.037933018,  0.029681515,  0.03358705,  0.22441843,  -0.101480216,  0.3032886,  -0.015013446,  0.11446611,  -0.10478168,  -0.08453728,  -0.34526,  -0.04733464,  0.19754577,  0.2259498,  0.0026111866,  -0.019891234,  0.055748425,  -0.36445612,  0.010579393,  0.5084664,  -0.063486494,  0.40307808,  0.18418086,  -0.07075697,  0.17759946,  0.05328031,  -0.06250071,  -0.08170657,  0.008991093,  -0.14864877,  0.16289848,  -0.112524085,  0.34071946,  0.35615572,  -0.064239904,  -0.09782001,  0.1313037,  -0.18851292,  0.17674422,  -0.0674554,  -0.12356493,  -0.02659342,  0.15162896,  0.00087401463,  -0.1601696,  -0.19102845,  -0.15612406,  -0.039158646,  0.003475829,  -0.12626491,  -0.13941266,  -0.15833811,  -0.082157984,  0.06978672,  0.017797614,  0.17663069,  0.06960852,  0.23711443,  -0.2689945,  -0.031934332,  0.03575084,  0.18079002,  0.20333976,  0.00019210577,  -0.080353886,  0.02073456,  -0.1937597,  0.05122405,  0.046461895,  0.12130823,  0.29919168,  0.1851051,  0.19986874,  0.32238805,  -0.17990658,  0.13257164,  0.05681262,  -0.22469798,  0.23172846,  0.15417135,  -0.3204088,  0.15222202,  0.20749944,  -0.053388953,  -0.13916846,  -0.07200484,  0.28043976,  0.14673068,  -0.030091444,  -0.011791225,  -0.0036167582,  0.2214541,  -0.012459866,  0.09205315,  -0.05931156,  -0.03574602,  -0.16212597,  -0.34500247,  0.0051334407,  -0.23051868,  0.21813257,  0.040699143,  0.24361607,  0.24346836,  0.1906569,  -0.27451882,  -0.107729554,  0.25079128,  -0.1270317,  0.28573358,  0.08545888,  0.13448362,  -0.27275056,  -0.04725303,  -0.3310205,  -0.17116983,  -0.05749805,  0.2883655,  -0.21280144,  0.38325632,  -0.14063005,  -0.27340055,  -0.02714551,  -0.2703578,  0.014592546,  0.18632382,  -0.037168995,  -0.3967974,  0.21871269,  0.09151062,  -0.16905533,  -0.30765054,  0.016461192,  -0.31444773,  0.21112141,  -0.18413258,  -0.10220366,  0.20194201,  0.3019048,  -0.29188812,  0.107880615,  -0.44182202,  -0.41007784,  -0.2872613,  0.13446036,  -0.2102189,  -0.30204704,  0.19193415,  0.01051069,  -0.1883759,  -0.069475584,  -0.040840946,  0.056436524,  0.08135736,  -0.31419843,  -0.26314658,  -0.05215864,  -0.18091732,  0.23447521,  -0.22598113,  0.207418,  -0.21126959,  -0.02100289,  -0.21588872,  0.13530125,  -0.12418071,  -0.13171834,  0.03273437,  0.021650191,  -0.08962669,  0.10471515,  -0.0865545,  0.177254,  0.079653665,  -0.26160294,  0.017957779,  -0.042935643,  -0.43866006,  0.011216258,  -0.15124433,  -0.11050141,  0.017940765,  -0.37222078,  0.041800294,  -0.19310509,  0.050077952,  0.03587611,  -0.27979952,  -0.28589883,  0.098120786,  -0.11108907,  0.09842689,  -0.06571183,  0.11602176,  0.20945428,  -0.14048335,  -0.24927533,  -0.03792656,  -0.23019893,  0.27295974,  0.38594872,  -0.251318,  -0.115299396,  0.22759144,  -0.25055793,  0.34335804,  0.23381102,  -0.36181885,  0.14737247,  0.2551829,  0.22494368,  -0.42659125,  0.19988316,  0.09212131,  0.047627598,  -0.17422661,  0.09030408,  0.053708658,  -0.18177265,  -0.031680245,  -0.07094132,  0.19501677,  -0.2767173,  -0.07034507,  -0.2374761,  -0.1175495,  0.21135308,  0.25834408,  -0.08721404,  -0.017498415,  0.1791534,  -0.14056638,  -0.19851719,  -0.22569267,  -0.17812699,  0.2527169,  0.077360645,  -0.39398926,  -0.06542929,  0.25958326,  0.09748305,  -0.060536828,  0.19904622,  -0.19809866,  -0.2543953,  0.07160155,  -0.3262403,  0.15066004,  -0.19456066,  0.37349558,  0.19892736,  0.17188646,  0.36700338,  0.019329444,  0.18584369,  0.06527204,  -0.41412845,  -0.28033203,  0.15769869,  0.44350362,  0.12534413,  0.2741776,  -0.20672727,  -0.10066938,  0.1639159,  -0.20025386,  -0.12812728,  0.14439464,  0.32183555,  0.3114651,  0.30115396,  -0.013551324,  -0.18919046,  0.18634598,  -0.1646503,  0.1763184,  0.297716,  -0.36286992,  -0.10791487,  0.273294,  -0.24205874,  0.12096624,  -0.02425699,  -0.17392458,  0.18429744,  -0.16779543,  -0.010719093,  -0.10230775,  0.014578433,  0.3371789,  0.27875158,  0.007544652,  0.2680293,  0.009272908,  -0.13334629,  -0.23002563,  0.16441497,  -0.38708872,  -0.03037962,  -0.00045131598,  0.17029692,  0.028109351,  0.047196504,  -0.08020583,  -0.24465315,  0.09648257,  -0.105310835,  -0.09955731,  0.37362415,  0.11227261,  0.29690698,  -0.14010963,  0.10000164,  0.121821076,  -0.1911878,  0.0030971956,  -0.13771701,  -0.1605316,  0.08396676,  0.16130531,  0.015690006,  -0.41785395,  0.23404747,  0.036741856,  -0.14160237,  0.02246419,  0.008531553,  0.047444932,  -0.016624918,  -0.14407542,  -0.01789639,  0.18771225,  -0.3559418,  0.011571488,  -0.28035992,  -0.31651688,  -3.42902e-05,  0.14339915,  0.26658034,  0.18200672,  0.20206034,  -0.35911444,  -0.20042759,  0.22614948,  -0.20074944,  0.04967579,  -0.055622682,  0.0010182337,  0.2280847,  0.37420794,  -0.005971778,  -0.1700652,  0.14309932,  -0.34948748,  -0.15703274,  0.14861503,  0.1645807,  0.19183883,  0.21410409,  -0.34780455,  0.120702304,  0.10238468,  0.20140742,  -0.08113169,  0.017509628,  0.08979677,  -0.056347124,  -0.00986879,  -0.14656636,  -0.06846899,  -0.1640344,  -0.39636293,  -0.02772119,  0.005769218,  -0.3137139,  0.06906693,  0.46600032,  -0.24967791,  -0.0047748904,  -0.21038267,  0.4564687,  -0.38842988,  -0.14973238,  0.4296148,  0.10498752,  -0.06383756,  -0.40078503,  0.16417362,  0.21456128,  0.09681685,  -0.36636576,  -0.1278377,  -0.31452775,  -0.17530166,  -0.12205342,  -0.10184874,  0.42592442,  0.29436767,  -0.09933673,  0.223032,  -0.40015963,  -0.25517672,  -0.17625836,  -0.25789487,  -0.40001383,  0.04864591,  0.09513638,  0.23974046,  -0.18448684,  -0.117610395,  0.27692297,  0.039172888,  0.15119521,  0.17758545,  -0.21795511,  -0.4496299,  -0.3891902,  -0.24095163,  0.0962468,  -0.19315939,  0.056589365,  0.21628077,  -0.30248684,  0.20064001,  0.13725144,  -0.31758952,  -0.36832267,  -0.14408495,  -0.045818225,  0.087572254,  -0.2725138,  -0.14927682,  0.07280975,  -0.2531121,  -0.41242433,  0.15536718,  -0.30001858,  -0.17390968,  -0.05125168,  -0.25071192,  0.013932357,  0.22316751,  0.0023002117,  -0.17739126,  -0.006675271,  -0.15386286,  0.40726525,  -0.036942583,  0.25835225,  0.07536185,  -0.19259177,  0.014051644,  0.20553306,  -0.33353794,  0.18434656,  0.3568709,  -0.021837376,  0.26346272,  -0.031650525,  0.10061147,  -0.40783647,  -0.010690216,  -0.21266532,  0.16810757,  -0.20652162,  0.16672194,  -0.06641589,  -0.058389746,  -0.32580486,  -0.07795326,  0.4537468,  0.23381025,  -0.04217577,  0.36455405,  -0.083278306,  -0.024659622,  -0.22480407,  -0.020515574,  0.094079584,  0.015075364,  0.3428512,  -0.11517897,  -0.2820797,  0.38174614,  -0.32128328,  0.27396512,  -0.32876718,  -0.20115502,  0.26492134,  0.2921849,  0.18525958,  -0.31066197,  0.06441304,  -0.23745406,  -0.31112775,  0.048726782,  0.004087267,  -0.19106954,  0.160558,  -0.11332665,  0.14323959,  0.28807825,  -0.16998343,  -0.071958475,  0.19414923,  -0.22045878,  -0.037819922,  -0.13317405,  -0.17558709,  -0.018914426,  0.24765542,  0.16565135,  0.16044842,  0.0488368,  -0.27517143,  0.0015234239,  -0.10040795,  0.0798083,  -0.1335542,  0.17993082,  0.08597932,  0.28879213,  -0.104471184,  0.07403993,  0.095007546,  -0.058099307,  -0.09544055,  -0.063351,  -0.10594904,  0.15525177,  -0.20668331,  -0.008396359,  -0.41327694,  -0.19277193,  0.028017072,  -0.29079536,  0.398183,  -0.120365955,  -0.13001889,  0.1579384,  0.13513455,  -0.071523316,  0.07351888,  0.16605665,  -0.018787483,  -0.039856445,  -0.2650165,  -0.20831004,  0.09014454,  -0.15851597,  -0.10686413,  0.27903426,  -0.18039083,  -0.15120517,  0.02303277,  -0.37329456,  -0.17462656,  -0.32060003,  0.042655636,  0.22982062,  -0.18168946,  0.13347712,  -0.09487486,  -0.058974985,  -0.31495568,  0.028368058,  -0.12714094,  -0.210348,  0.36554235,  0.25593573,  -0.22102161,  -0.077851795,  0.2270973,  -0.06369053,  -0.11828392,  -0.17335175,  0.04662971,  -0.33493423,  -0.083829485,  -0.042603936,  0.113992505,  -0.20734645,  -0.23701562,  -0.13370065,  0.25247088,  0.02107966,  -0.00080425345,  0.13477369,  -0.13393192,  0.11646434,  -0.036477517,  -0.0693163,  0.15551926,  -0.29980242,  -0.23126279,  0.33211884,  0.34923032,  0.2725169,  -0.0057936655,  -0.18430546,  -0.17452289,  0.22129534,  0.25987056,  0.39017737,  -0.03098814,  0.07130576,  -0.19439173,  0.03401316,  0.35222667,  -0.21640156,  -0.13910843,  -0.15407129,  -0.08767677,  -0.4098363,  -0.07823698,  0.16459636,  0.60460114,  -0.28371608,  0.32732078,  0.15520437,  0.050613217,  -0.0720186,  -0.29194024,  0.13810019,  -0.13560216,  0.3213861,  0.101741076,  -0.18281592,  0.24399675,  -0.15751529,  -0.028187402,  -0.06255867,  -0.17781754,  -0.22158338,  -0.08435399,  0.07280696,  0.54533535,  0.18846698,  0.11814572,  -0.23111272,  0.09638319,  -0.3647512,  0.057686683,  0.20998515,  0.17039393,  -0.29425943,  -0.16753027,  -0.105546795,  0.03304323,  -0.061802067,  0.2443793,  0.15844005,  -0.015757933,  -0.38578147,  -0.23899336,  0.19004111,  -0.012731323,  };
#include <stdint.h>

const float inline_dense_1_bias_0 [ 20 ] = {  0.5258932,  -0.11055439,  0.00034332857,  -0.20175065,  -0.0139941275,  0.31972778,  0.43162933,  -0.074055634,  -0.07259098,  0.5289805,  -0.020446071,  0.3681735,  0.42631197,  -0.036645245,  -0.009650625,  -0.05293626,  0.329563,  0.47366884,  0.35926038,  -0.10984677,  };
#include <stdint.h>

const float inline_dense_2_kernel_0 [ 200 ] = {  -0.076118335,  0.03482059,  -0.16659519,  -0.03600554,  -0.061856408,  0.43628037,  0.67706984,  0.55980176,  0.29851267,  -0.26505515,  0.6303774,  -0.60722804,  0.5641704,  -0.058666836,  -0.16008314,  -0.67913556,  -0.1800139,  -0.2501982,  -0.12328576,  -0.51497006,  -0.36190847,  0.65987545,  -0.20428707,  0.029923996,  0.583084,  -0.3036658,  -0.18061413,  -0.5247813,  0.18047498,  0.5513375,  0.21676478,  -0.49567652,  0.3374107,  -0.22377452,  0.05886786,  -0.4790302,  0.04138186,  -0.08348746,  -0.3957334,  -0.03951083,  -0.0022804502,  0.43791828,  -0.5050153,  0.0048753237,  0.119398616,  -0.13358922,  -0.08617885,  -0.7690041,  0.25303546,  0.19318117,  0.21977443,  -0.2538593,  0.23461987,  0.54053676,  0.39917117,  0.4918969,  -0.18636084,  0.39358863,  -0.45854697,  0.28692415,  -0.25295913,  -0.33375216,  -0.27304757,  0.39922333,  -0.17613012,  0.07266151,  0.69404787,  0.22106963,  -0.29123044,  0.3001195,  -0.1516549,  -0.20142402,  -0.29592493,  0.29079336,  -0.23082599,  -0.09370113,  0.0018664687,  -0.078723684,  -0.33843634,  -0.39986455,  -0.095615245,  -0.09345141,  -0.09079822,  -0.14968789,  -0.4054178,  -0.17432997,  -0.32140064,  -0.08612176,  0.042024337,  -0.005364792,  0.22544685,  -0.39522192,  0.40981722,  -0.32553622,  0.06537094,  0.8457379,  0.58381945,  0.27470616,  -0.3947258,  -0.5246087,  0.33120504,  0.19096339,  0.008824495,  -0.016244719,  0.26828623,  0.34643912,  -0.2232318,  -0.4707571,  0.22347118,  -0.15233989,  0.04233482,  -0.43542466,  -0.19063517,  0.106161386,  -0.20177048,  0.28646445,  0.5929797,  0.26214424,  -0.07579894,  0.5721457,  -0.09595296,  0.33846676,  -0.37307876,  0.56010634,  -0.22482601,  0.18273416,  0.28105208,  0.4185896,  -0.083727315,  0.28471437,  -0.09939544,  0.45665005,  -0.15030202,  -0.16667327,  0.19789803,  -0.2704811,  0.008079071,  -0.29463503,  0.16026068,  0.45281738,  -0.35979047,  -0.19282821,  0.014937667,  0.27944744,  0.41310623,  0.1926768,  -0.10992202,  -0.26617178,  0.4166776,  0.059388664,  0.17583211,  0.27387324,  0.1557391,  -0.26645273,  0.15367447,  -0.18028139,  -0.23599948,  -0.6991852,  0.12550052,  0.021325627,  0.3916733,  0.45179847,  -0.3057108,  0.27686962,  -0.26337656,  0.36391965,  -0.27179998,  0.38798335,  0.49369597,  0.08131971,  -0.11622595,  -0.17155285,  -0.3416782,  -0.7944052,  0.4115784,  0.48664197,  0.8086102,  0.45275185,  0.47387645,  -0.7398483,  -0.08609648,  -0.262199,  0.12773521,  0.0057518403,  -0.15882504,  -0.12736139,  0.23139466,  0.57879376,  -0.29620582,  0.2626637,  0.33205333,  -0.36611578,  -0.18289195,  -0.08880163,  -0.3017412,  0.028360024,  0.47033542,  -0.6372561,  0.103134714,  0.4030734,  };
#include <stdint.h>

const float inline_dense_2_bias_0 [ 10 ] = {  -0.058354795,  0.2134186,  0.00715145,  -0.14827888,  0.05671758,  0.40483436,  0.3094107,  0.41539118,  -0.0031429844,  0.09295592,  };
#include <stdint.h>

const float inline_y_pred_kernel_0 [ 40 ] = {  -0.3374137,  -0.7480355,  -0.023999438,  0.4961182,  -0.8758266,  0.07881326,  -0.7591093,  -0.7109192,  -0.09365388,  0.36336944,  -0.60715395,  0.45242134,  -0.7066747,  0.67002076,  0.19792858,  -0.7755926,  -0.5203682,  0.5278562,  -0.42739606,  0.4507484,  0.48494247,  -0.1835942,  -0.9314227,  -0.528101,  0.9019426,  -1.0021311,  0.47032306,  -0.8919196,  0.7719492,  -0.5922245,  -0.6207499,  -0.70154345,  -0.76791996,  0.14355223,  -0.38137287,  0.11423841,  -0.92708254,  0.34873635,  0.50261444,  -0.09342219,  };
#include <stdint.h>

const float inline_y_pred_bias_0 [ 4 ] = {  0.29744396,  -0.07931276,  -0.27224758,  -0.14766939,  };
